\data\
ngram 1=183
ngram 2=312
ngram 3=344

\1-grams:
-2.431364	100만	-0.301030
-2.908485	15일	-0.301030
-2.908485	20일	-0.301030
-2.908485	22일	-0.301030
-2.908485	6시	-0.301030
-2.908485	70	-0.301030
-2.908485	73	-0.301030
-1.477121	</s>	-0.301030
-1.477121	<s>	-0.301030
-1.732394	A	-0.301030
-2.431364	B	-0.301030
-2.063387	가	-0.301030
-2.431364	가닥	-0.301030
-2.908485	강영훈	-0.301030
-2.908485	같은	-0.301030
-2.908485	건네	-0.301030
-2.431364	건넨	-0.301030
-2.908485	건넸	-0.301030
-2.431364	검토	-0.301030
-2.063387	것	-0.301030
-2.908485	게	-0.301030
-2.908485	결국	-0.301030
-2.908485	경기	-0.301030
-2.431364	경위	-0.301030
-1.794542	경찰	-0.301030
-1.954243	경찰관	-0.301030
-2.209515	경찰서	-0.301030
-2.209515	고	-0.301030
-2.908485	곧바로	-0.301030
-2.209515	과	-0.301030
-1.954243	과태료	-0.301030
-2.908485	관계자	-0.301030
-2.431364	관련	-0.301030
-2.431364	관련성	-0.301030
-2.908485	관한	-0.301030
-2.908485	관할	-0.301030
-2.908485	그러나	-0.301030
-2.908485	금지	-0.301030
-2.209515	금지법	-0.301030
-1.954243	금품	-0.301030
-2.431364	기사	-0.301030
-2.908485	기자	-0.301030
-2.431364	까지	-0.301030
-2.908485	께	-0.301030
-2.209515	끝난	-0.301030
-2.908485	날	-0.301030
-2.431364	내용	-0.301030
-2.908485	낸	-0.301030
-1.678036	는	-0.301030
-2.908485	늦게	-0.301030
-2.908485	늦은	-0.301030
-1.546757	다	-0.301030
-2.908485	다가	-0.301030
-2.908485	다시	-0.301030
-2.431364	담당	-0.301030
-2.908485	대	-0.301030
-2.908485	대상	-0.301030
-2.209515	돈	-0.301030
-2.908485	돌려줬	-0.301030
-2.908485	돌아갔	-0.301030
-2.908485	동부	-0.301030
-2.431364	돼	-0.301030
-2.908485	됐	-0.301030
-2.431364	된	-0.301030
-2.908485	두고	-0.301030
-2.209515	뒤	-0.301030
-2.908485	든	-0.301030
-2.908485	들	-0.301030
-2.908485	등	-0.301030
-2.908485	또다시	-0.301030
-2.431364	뜻	-0.301030
-1.794542	로	-0.301030
-1.867092	를	-0.301030
-2.908485	마음	-0.301030
-2.908485	만	-0.301030
-2.908485	만큼	-0.301030
-2.908485	말했	-0.301030
-2.431364	며	-0.301030
-2.209515	명백	-0.301030
-2.908485	명함	-0.301030
-2.908485	몰렸	-0.301030
-2.908485	못	-0.301030
-2.908485	문관	-0.301030
-2.908485	물	-0.301030
-2.908485	미안하게	-0.301030
-2.908485	미안한	-0.301030
-2.431364	미안함	-0.301030
-2.908485	및	-0.301030
-2.908485	받게	-0.301030
-2.908485	받지	-0.301030
-2.908485	밝혔	-0.301030
-2.908485	버렸	-0.301030
-2.908485	법률	-0.301030
-2.431364	법원	-0.301030
-2.908485	보고	-0.301030
-2.908485	봉투	-0.301030
-2.908485	부정	-0.301030
-2.908485	붙잡혀	-0.301030
-2.908485	붙잡힌	-0.301030
-2.908485	뿐	-0.301030
-2.209515	사실	-0.301030
-2.431364	사진	-0.301030
-2.908485	상대로	-0.301030
-2.908485	서	-0.301030
-1.954243	소란	-0.301030
-2.908485	소재	-0.301030
-2.908485	수수	-0.301030
-2.908485	술	-0.301030
-2.908485	시간	-0.301030
-2.908485	신고했	-0.301030
-2.908485	실	-0.301030
-1.732394	씨	-0.301030
-2.431364	알	-0.301030
-2.908485	어가	-0.301030
-2.431364	업무방해	-0.301030
-2.431364	없	-0.301030
-1.732394	에	-0.301030
-1.954243	에게	-0.301030
-2.431364	에서	-0.301030
-2.908485	에서도	-0.301030
-2.209515	연합뉴스	-0.301030
-2.908485	오산시	-0.301030
-2.908485	오전	-0.301030
-2.431364	원	-0.301030
-2.908485	위	-0.301030
-2.209515	위반	-0.301030
-2.908485	위반한	-0.301030
-2.908485	으나	-0.301030
-2.209515	으로	-0.301030
-1.867092	은	-0.301030
-1.417123	을	-0.301030
-2.431364	음	-0.301030
-1.954243	의	-0.301030
-2.431364	의뢰	-0.301030
-2.209515	의사	-0.301030
-1.867092	이	-0.301030
-2.431364	이라고	-0.301030
-2.908485	이런	-0.301030
-2.908485	이었	-0.301030
-2.908485	이하	-0.301030
-2.908485	인	-0.301030
-2.908485	인데	-0.301030
-2.908485	일	-0.301030
-2.431364	입건	-0.301030
-2.431364	있는	-0.301030
-2.209515	있다	-0.301030
-2.908485	있지	-0.301030
-2.431364	자료	-0.301030
-2.908485	잡았	-0.301030
-2.908485	제공	-0.301030
-2.431364	제공한	-0.301030
-1.954243	조사	-0.301030
-2.431364	조사하고	-0.301030
-2.908485	좋	-0.301030
-2.908485	주장했	-0.301030
-2.908485	중	-0.301030
-2.908485	지난	-0.301030
-2.908485	지난달	-0.301030
-2.431364	직무	-0.301030
-2.908485	직무관련성	-0.301030
-2.908485	진술	-0.301030
-2.908485	진술서	-0.301030
-2.908485	찾아	-0.301030
-2.908485	책상	-0.301030
-1.954243	처분	-0.301030
-2.908485	처지	-0.301030
-2.908485	청	-0.301030
-2.063387	청탁	-0.301030
-2.908485	취지	-0.301030
-2.908485	취해	-0.301030
-2.431364	편의점	-0.301030
-2.431364	표시	-0.301030
-2.431364	피우다	-0.301030
-2.431364	피워	-0.301030
-2.908485	하고	-0.301030
-2.908485	하기	-0.301030
-2.431364	한	-0.301030
-2.908485	할	-0.301030
-2.908485	해	-0.301030
-2.431364	했	-0.301030
-2.908485	현금	-0.301030
-1.954243	혐의	-0.301030
-2.431364	화성	-0.301030

\2-grams:
-0.124939	100만 원	0.000000
-0.301030	15일 경찰서	0.000000
-0.301030	20일 오전	0.000000
-0.301030	22일 밝혔	0.000000
-0.301030	6시 께	0.000000
-0.301030	70 대	0.000000
-0.301030	73 씨	0.000000
-0.015794	</s> </s>	-0.271067
-0.748188	<s> A	-0.176091
-1.447158	<s> 경기	0.000000
-0.970037	<s> 경찰	0.000000
-1.447158	<s> 그러나	0.000000
-0.970037	<s> 기사	-0.124939
-1.447158	<s> 돈	0.000000
-1.447158	<s> 업무방해	0.000000
-1.447158	<s> 이런	0.000000
-1.447158	<s> 지난	0.000000
-1.447158	<s> 화성	0.000000
-1.204120	A 73	0.000000
-0.090177	A 씨	-0.104735
-0.124939	B 경위	0.000000
-0.903090	가 경찰	0.000000
-0.425969	가 끝난	-0.124939
-0.903090	가 청탁	0.000000
-0.602060	가닥 </s>	0.000000
-0.602060	가닥 을	0.000000
-0.301030	강영훈 기자	0.000000
-0.301030	같은 날	0.000000
-0.301030	건네 미안함	0.000000
-0.602060	건넨 것	0.000000
-0.602060	건넨 의사	0.000000
-0.301030	건넸 다가	0.000000
-0.602060	검토 중	0.000000
-0.602060	검토 하고	0.000000
-0.903090	것 으로	0.000000
-0.903090	것 을	0.000000
-0.903090	것 이라고	0.000000
-0.903090	것 인데	0.000000
-0.301030	게 된	0.000000
-0.301030	결국 조사	0.000000
-0.301030	경기 화성	0.000000
-0.602060	경위 는	0.000000
-0.602060	경위 의	0.000000
-1.146128	경찰 관계자	0.000000
-1.146128	경찰 에	0.000000
-0.447158	경찰 은	0.000000
-1.146128	경찰 조사	0.000000
-1.146128	경찰 직무관련성	0.000000
-1.000000	경찰관 들	0.000000
-0.301030	경찰관 에게	-0.079181
-1.000000	경찰관 인	0.000000
-0.778151	경찰서 는	0.000000
-0.778151	경찰서 를	0.000000
-0.778151	경찰서 에서도	0.000000
-0.778151	고 22일	0.000000
-0.778151	고 경찰	0.000000
-0.778151	고 있지	0.000000
-0.301030	곧바로 청	0.000000
-0.301030	과 관련	-0.124939
-0.778151	과 명함	0.000000
-1.000000	과태료 를	0.000000
-0.154902	과태료 처분	-0.057992
-0.301030	관계자 는	0.000000
-0.124939	관련 없	-0.124939
-0.124939	관련성 이	-0.124939
-0.301030	관한 법률	0.000000
-0.301030	관할 법원	0.000000
-0.301030	그러나 경찰	0.000000
-0.301030	금지 에	0.000000
-0.301030	금지법 위반	-0.124939
-0.778151	금지법 을	0.000000
-1.000000	금품 등	0.000000
-1.000000	금품 은	0.000000
-0.522879	금품 을	-0.124939
-1.000000	금품 제공	0.000000
-0.124939	기사 내용	-0.124939
-0.301030	기자 편의점	0.000000
-0.124939	까지 소란	-0.124939
-0.301030	께 오산시	0.000000
-0.079181	끝난 뒤	-0.079181
-0.301030	날 곧바로	0.000000
-0.124939	내용 과	-0.124939
-0.301030	낸 진술서	0.000000
-1.255273	는 A	0.000000
-1.255273	는 같은	0.000000
-1.255273	는 경찰	0.000000
-1.255273	는 경찰서	0.000000
-1.255273	는 늦게	0.000000
-1.255273	는 부정	0.000000
-1.255273	는 조사	0.000000
-1.255273	는 지난달	0.000000
-1.255273	는 취지	0.000000
-0.301030	늦게 까지	0.000000
-0.301030	늦은 시간	0.000000
-0.149762	다 </s>	-0.255273
-1.380211	다 결국	0.000000
-1.380211	다 는	0.000000
-1.380211	다 며	0.000000
-0.301030	다가 청탁	0.000000
-0.301030	다시 조사	0.000000
-0.124939	담당 경찰관	0.000000
-0.301030	대 의사	0.000000
-0.301030	대상 으로	0.000000
-0.079181	돈 을	0.000000
-0.301030	돌려줬 다	0.000000
-0.301030	돌아갔 다	0.000000
-0.301030	동부 경찰서	0.000000
-0.602060	돼 버렸	0.000000
-0.602060	돼 조사	0.000000
-0.301030	됐 다	0.000000
-0.602060	된 A	0.000000
-0.602060	된 B	0.000000
-0.301030	두고 돌아갔	0.000000
-0.778151	뒤 건네	0.000000
-0.301030	뒤 담당	-0.124939
-0.301030	든 봉투	0.000000
-0.301030	들 에게	0.000000
-0.301030	등 수수	0.000000
-0.301030	또다시 미안하게	0.000000
-0.602060	뜻 으로	0.000000
-0.602060	뜻 은	0.000000
-1.146128	로 가닥	0.000000
-1.146128	로 건넨	0.000000
-1.146128	로 과태료	0.000000
-1.146128	로 의사	0.000000
-1.146128	로 입건	0.000000
-1.146128	로 조사하고	0.000000
-1.146128	로 진술	0.000000
-1.079181	를 검토	0.000000
-1.079181	를 두고	0.000000
-1.079181	를 물	0.000000
-1.079181	를 받지	0.000000
-1.079181	를 상대로	0.000000
-1.079181	를 찾아	0.000000
-0.301030	마음 이었	0.000000
-0.301030	만 직무	0.000000
-0.301030	만큼 과태료	0.000000
-0.301030	말했 다	0.000000
-0.602060	며 100만	0.000000
-0.602060	며 좋	0.000000
-0.778151	명백 과태료	0.000000
-0.778151	명백 한	0.000000
-0.778151	명백 해	0.000000
-0.301030	명함 이	0.000000
-0.301030	몰렸 다	0.000000
-0.301030	못 했	0.000000
-0.301030	문관 실	0.000000
-0.301030	물 처지	0.000000
-0.301030	미안하게 돼	0.000000
-0.301030	미안한 마음	0.000000
-0.124939	미안함 의	-0.124939
-0.301030	및 금품	0.000000
-0.301030	받게 된	0.000000
-0.301030	받지 못	0.000000
-0.301030	밝혔 다	0.000000
-0.301030	버렸 다	0.000000
-0.301030	법률 위반	0.000000
-0.124939	법원 에	0.000000
-0.301030	보고 법원	0.000000
-0.301030	봉투 를	0.000000
-0.301030	부정 청탁	0.000000
-0.301030	붙잡혀 업무방해	0.000000
-0.301030	붙잡힌 70	0.000000
-0.301030	뿐 </s>	0.000000
-0.778151	사실 을	0.000000
-0.301030	사실 이	-0.124939
-0.124939	사진 </s>	-0.124939
-0.301030	상대로 조사하고	0.000000
-0.301030	서 소란	0.000000
-0.045757	소란 을	-0.096910
-0.301030	소재 편의점	0.000000
-0.301030	수수 의	0.000000
-0.301030	술 에	0.000000
-0.301030	시간 까지	0.000000
-0.301030	신고했 고	0.000000
-0.301030	실 에	0.000000
-1.204120	씨 가	0.000000
-0.359022	씨 는	0.000000
-1.204120	씨 를	0.000000
-1.204120	씨 에게	0.000000
-1.204120	씨 의	0.000000
-0.602060	알 게	0.000000
-0.602060	알 고	0.000000
-0.301030	어가 다	0.000000
-0.124939	업무방해 혐의	0.000000
-0.124939	없 음	-0.124939
-1.204120	에 과태료	0.000000
-1.204120	에 관한	0.000000
-1.204120	에 낸	0.000000
-1.204120	에 몰렸	0.000000
-1.204120	에 신고했	0.000000
-1.204120	에 처분	0.000000
-1.204120	에 취해	0.000000
-1.204120	에 현금	0.000000
-0.522879	에게 금품	-0.124939
-1.000000	에게 돈	0.000000
-1.000000	에게 돌려줬	0.000000
-1.000000	에게 미안한	0.000000
-0.602060	에서 늦은	0.000000
-0.602060	에서 술	0.000000
-0.301030	에서도 소란	0.000000
-0.778151	연합뉴스 강영훈	0.000000
-0.301030	연합뉴스 자료	-0.124939
-0.301030	오산시 소재	0.000000
-0.301030	오전 6시	0.000000
-0.602060	원 과	0.000000
-0.602060	원 이하	0.000000
-0.301030	위 에	0.000000
-0.079181	위반 혐의	-0.176091
-0.301030	위반한 것	0.000000
-0.301030	으나 경찰	0.000000
-0.778151	으로 관할	0.000000
-0.778151	으로 보고	0.000000
-0.778151	으로 한	0.000000
-1.079181	은 A	0.000000
-1.079181	은 과태료	0.000000
-1.079181	은 돈	0.000000
-1.079181	은 뜻	0.000000
-1.079181	은 알	0.000000
-1.079181	은 직무	0.000000
-1.505150	을 A	0.000000
-1.505150	을 건넨	0.000000
-1.505150	을 건넸	0.000000
-1.505150	을 검토	0.000000
-1.505150	을 알	0.000000
-1.505150	을 위반한	0.000000
-1.505150	을 의뢰	0.000000
-1.505150	을 이	0.000000
-1.505150	을 잡았	0.000000
-1.028029	을 제공한	-0.124939
-1.028029	을 피우다	0.000000
-1.028029	을 피워	0.000000
-1.505150	을 하기	0.000000
-0.124939	음 연합뉴스	-0.124939
-1.000000	의 금지	0.000000
-1.000000	의 뜻	0.000000
-1.000000	의 책상	0.000000
-0.522879	의 표시	0.000000
-0.602060	의뢰 를	0.000000
-0.602060	의뢰 할	0.000000
-0.778151	의사 A	0.000000
-0.778151	의사 가	0.000000
-0.778151	의사 는	0.000000
-1.079181	이 든	0.000000
-0.602060	이 명백	0.000000
-1.079181	이 어가	0.000000
-0.602060	이 있는	-0.124939
-0.602060	이라고 말했	0.000000
-0.602060	이라고 주장했	0.000000
-0.301030	이런 사실	0.000000
-0.301030	이었 다	0.000000
-0.301030	이하 금품	0.000000
-0.301030	인 B	0.000000
-0.301030	인데 또다시	0.000000
-0.301030	일 뿐	0.000000
-0.602060	입건 돼	0.000000
-0.602060	입건 됐	0.000000
-0.124939	있는 경찰관	-0.124939
-0.778151	있다 </s>	0.000000
-0.778151	있다 고	0.000000
-0.778151	있다 며	0.000000
-0.301030	있지 만	0.000000
-0.124939	자료 사진	-0.124939
-0.301030	잡았 다	0.000000
-0.301030	제공 명백	0.000000
-0.124939	제공한 사실	-0.124939
-0.522879	조사 가	-0.124939
-1.000000	조사 끝난	0.000000
-1.000000	조사 를	0.000000
-1.000000	조사 받게	0.000000
-0.124939	조사하고 있다	0.000000
-0.301030	좋 은	0.000000
-0.301030	주장했 으나	0.000000
-0.301030	중 이라고	0.000000
-0.301030	지난 15일	0.000000
-0.301030	지난달 20일	0.000000
-0.124939	직무 관련성	-0.124939
-0.301030	직무관련성 금품	0.000000
-0.301030	진술 했	0.000000
-0.301030	진술서 에서	0.000000
-0.301030	찾아 다시	0.000000
-0.301030	책상 위	0.000000
-1.000000	처분 가닥	0.000000
-1.000000	처분 대상	0.000000
-0.522879	처분 을	0.000000
-1.000000	처분 의뢰	0.000000
-0.301030	처지 에	0.000000
-0.301030	청 문관	0.000000
-0.204120	청탁 금지법	-0.079181
-0.903090	청탁 및	0.000000
-0.301030	취지 로	0.000000
-0.301030	취해 소란	0.000000
-0.602060	편의점 서	0.000000
-0.602060	편의점 에서	0.000000
-0.602060	표시 로	0.000000
-0.602060	표시 일	0.000000
-0.602060	피우다 붙잡혀	0.000000
-0.602060	피우다 붙잡힌	0.000000
-0.602060	피워 경찰관	0.000000
-0.602060	피워 미안함	0.000000
-0.301030	하고 있다	0.000000
-0.301030	하기 로	0.000000
-0.602060	한 것	0.000000
-0.602060	한 만큼	0.000000
-0.301030	할 것	0.000000
-0.301030	해 청탁	0.000000
-0.124939	했 다	-0.124939
-0.301030	현금 100만	0.000000
-0.154902	혐의 로	0.000000
-1.000000	혐의 입건	0.000000
-0.602060	화성 동부	0.000000
-0.602060	화성 연합뉴스	0.000000

\3-grams:
-0.602060	100만 원 과	0.000000
-0.602060	100만 원 이하	0.000000
-0.301030	15일 경찰서 를	0.000000
-0.301030	20일 오전 6시	0.000000
-0.301030	22일 밝혔 다	0.000000
-0.301030	6시 께 오산시	0.000000
-0.301030	70 대 의사	0.000000
-0.301030	73 씨 를	0.000000
-0.015794	</s> </s> </s>	0.000000
-0.079181	<s> A 씨	0.000000
-0.301030	<s> 경기 화성	0.000000
-0.602060	<s> 경찰 관계자	0.000000
-0.602060	<s> 경찰 직무관련성	0.000000
-0.301030	<s> 그러나 경찰	0.000000
-0.124939	<s> 기사 내용	0.000000
-0.301030	<s> 돈 을	0.000000
-0.301030	<s> 업무방해 혐의	0.000000
-0.301030	<s> 이런 사실	0.000000
-0.301030	<s> 지난 15일	0.000000
-0.301030	<s> 화성 연합뉴스	0.000000
-0.301030	A 73 씨	0.000000
-1.146128	A 씨 가	0.000000
-0.301030	A 씨 는	0.000000
-1.146128	A 씨 에게	0.000000
-1.146128	A 씨 의	0.000000
-0.602060	B 경위 는	0.000000
-0.602060	B 경위 의	0.000000
-0.301030	가 경찰 조사	0.000000
-0.124939	가 끝난 뒤	0.000000
-0.301030	가 청탁 금지법	0.000000
-0.301030	가닥 </s> </s>	0.000000
-0.301030	가닥 을 잡았	0.000000
-0.301030	강영훈 기자 편의점	0.000000
-0.301030	같은 날 곧바로	0.000000
-0.301030	건네 미안함 의	0.000000
-0.301030	건넨 것 이라고	0.000000
-0.301030	건넨 의사 는	0.000000
-0.301030	건넸 다가 청탁	0.000000
-0.301030	검토 중 이라고	0.000000
-0.301030	검토 하고 있다	0.000000
-0.301030	것 으로 보고	0.000000
-0.301030	것 을 검토	0.000000
-0.301030	것 이라고 주장했	0.000000
-0.301030	것 인데 또다시	0.000000
-0.301030	게 된 B	0.000000
-0.301030	결국 조사 를	0.000000
-0.301030	경기 화성 동부	0.000000
-0.301030	경위 는 같은	0.000000
-0.301030	경위 의 책상	0.000000
-0.301030	경찰 관계자 는	0.000000
-0.301030	경찰 에 낸	0.000000
-0.778151	경찰 은 A	0.000000
-0.778151	경찰 은 돈	0.000000
-0.778151	경찰 은 직무	0.000000
-0.301030	경찰 조사 가	0.000000
-0.301030	경찰 직무관련성 금품	0.000000
-0.301030	경찰관 들 에게	0.000000
-0.301030	경찰관 에게 금품	0.000000
-0.778151	경찰관 에게 돈	0.000000
-0.301030	경찰관 인 B	0.000000
-0.301030	경찰서 는 부정	0.000000
-0.301030	경찰서 를 찾아	0.000000
-0.301030	경찰서 에서도 소란	0.000000
-0.301030	고 22일 밝혔	0.000000
-0.301030	고 경찰 은	0.000000
-0.301030	고 있지 만	0.000000
-0.301030	곧바로 청 문관	0.000000
-0.124939	과 관련 없	0.000000
-0.301030	과 명함 이	0.000000
-0.301030	과태료 를 물	0.000000
-0.903090	과태료 처분 가닥	0.000000
-0.903090	과태료 처분 대상	0.000000
-0.425969	과태료 처분 을	0.000000
-0.301030	관계자 는 A	0.000000
-0.124939	관련 없 음	0.000000
-0.124939	관련성 이 있는	0.000000
-0.301030	관한 법률 위반	0.000000
-0.301030	관할 법원 에	0.000000
-0.301030	그러나 경찰 은	0.000000
-0.301030	금지 에 관한	0.000000
-0.124939	금지법 위반 혐의	0.000000
-0.301030	금지법 을 위반한	0.000000
-0.301030	금품 등 수수	0.000000
-0.301030	금품 은 과태료	0.000000
-0.124939	금품 을 제공한	0.000000
-0.301030	금품 제공 명백	0.000000
-0.124939	기사 내용 과	0.000000
-0.301030	기자 편의점 서	0.000000
-0.124939	까지 소란 을	0.000000
-0.301030	께 오산시 소재	0.000000
-0.778151	끝난 뒤 건네	0.000000
-0.301030	끝난 뒤 담당	0.000000
-0.301030	날 곧바로 청	0.000000
-0.124939	내용 과 관련	0.000000
-0.301030	낸 진술서 에서	0.000000
-0.301030	는 A 씨	0.000000
-0.301030	는 같은 날	0.000000
-0.301030	는 경찰 에	0.000000
-0.301030	는 경찰서 에서도	0.000000
-0.301030	는 늦게 까지	0.000000
-0.301030	는 부정 청탁	0.000000
-0.301030	는 조사 가	0.000000
-0.301030	는 지난달 20일	0.000000
-0.301030	는 취지 로	0.000000
-0.301030	늦게 까지 소란	0.000000
-0.301030	늦은 시간 까지	0.000000
-0.024824	다 </s> </s>	0.000000
-0.301030	다 결국 조사	0.000000
-0.301030	다 는 취지	0.000000
-0.301030	다 며 좋	0.000000
-0.301030	다가 청탁 금지법	0.000000
-0.301030	다시 조사 받게	0.000000
-0.602060	담당 경찰관 에게	0.000000
-0.602060	담당 경찰관 인	0.000000
-0.301030	대 의사 가	0.000000
-0.301030	대상 으로 관할	0.000000
-0.778151	돈 을 A	0.000000
-0.778151	돈 을 건넨	0.000000
-0.778151	돈 을 건넸	0.000000
-0.301030	돌려줬 다 </s>	0.000000
-0.301030	돌아갔 다 </s>	0.000000
-0.301030	동부 경찰서 는	0.000000
-0.301030	돼 버렸 다	0.000000
-0.301030	돼 조사 끝난	0.000000
-0.301030	됐 다 </s>	0.000000
-0.301030	된 A 씨	0.000000
-0.301030	된 B 경위	0.000000
-0.301030	두고 돌아갔 다	0.000000
-0.301030	뒤 건네 미안함	0.000000
-0.124939	뒤 담당 경찰관	0.000000
-0.301030	든 봉투 를	0.000000
-0.301030	들 에게 미안한	0.000000
-0.301030	등 수수 의	0.000000
-0.301030	또다시 미안하게 돼	0.000000
-0.301030	뜻 으로 한	0.000000
-0.301030	뜻 은 알	0.000000
-0.301030	로 가닥 을	0.000000
-0.301030	로 건넨 것	0.000000
-0.301030	로 과태료 를	0.000000
-0.301030	로 의사 A	0.000000
-0.301030	로 입건 됐	0.000000
-0.301030	로 조사하고 있다	0.000000
-0.301030	로 진술 했	0.000000
-0.301030	를 검토 중	0.000000
-0.301030	를 두고 돌아갔	0.000000
-0.301030	를 물 처지	0.000000
-0.301030	를 받지 못	0.000000
-0.301030	를 상대로 조사하고	0.000000
-0.301030	를 찾아 다시	0.000000
-0.301030	마음 이었 다	0.000000
-0.301030	만 직무 관련성	0.000000
-0.301030	만큼 과태료 처분	0.000000
-0.301030	말했 다 </s>	0.000000
-0.301030	며 100만 원	0.000000
-0.301030	며 좋 은	0.000000
-0.301030	명백 과태료 처분	0.000000
-0.301030	명백 한 만큼	0.000000
-0.301030	명백 해 청탁	0.000000
-0.301030	명함 이 든	0.000000
-0.301030	몰렸 다 </s>	0.000000
-0.301030	못 했 다	0.000000
-0.301030	문관 실 에	0.000000
-0.301030	물 처지 에	0.000000
-0.301030	미안하게 돼 버렸	0.000000
-0.301030	미안한 마음 이었	0.000000
-0.124939	미안함 의 표시	0.000000
-0.301030	및 금품 등	0.000000
-0.301030	받게 된 A	0.000000
-0.301030	받지 못 했	0.000000
-0.301030	밝혔 다 </s>	0.000000
-0.301030	버렸 다 는	0.000000
-0.301030	법률 위반 혐의	0.000000
-0.602060	법원 에 과태료	0.000000
-0.602060	법원 에 처분	0.000000
-0.301030	보고 법원 에	0.000000
-0.301030	봉투 를 두고	0.000000
-0.301030	부정 청탁 및	0.000000
-0.301030	붙잡혀 업무방해 혐의	0.000000
-0.301030	붙잡힌 70 대	0.000000
-0.301030	뿐 </s> </s>	0.000000
-0.301030	사실 을 알	0.000000
-0.124939	사실 이 명백	0.000000
-0.124939	사진 </s> </s>	0.000000
-0.301030	상대로 조사하고 있다	0.000000
-0.301030	서 소란 을	0.000000
-1.000000	소란 을 이	0.000000
-0.522879	소란 을 피우다	0.000000
-0.522879	소란 을 피워	0.000000
-0.301030	소재 편의점 에서	0.000000
-0.301030	수수 의 금지	0.000000
-0.301030	술 에 취해	0.000000
-0.301030	시간 까지 소란	0.000000
-0.301030	신고했 고 경찰	0.000000
-0.301030	실 에 신고했	0.000000
-0.301030	씨 가 청탁	0.000000
-0.903090	씨 는 경찰	0.000000
-0.903090	씨 는 경찰서	0.000000
-0.903090	씨 는 조사	0.000000
-0.903090	씨 는 지난달	0.000000
-0.301030	씨 를 상대로	0.000000
-0.301030	씨 에게 돌려줬	0.000000
-0.301030	씨 의 뜻	0.000000
-0.301030	알 게 된	0.000000
-0.301030	알 고 있지	0.000000
-0.301030	어가 다 결국	0.000000
-0.602060	업무방해 혐의 로	0.000000
-0.602060	업무방해 혐의 입건	0.000000
-0.124939	없 음 연합뉴스	0.000000
-0.301030	에 과태료 처분	0.000000
-0.301030	에 관한 법률	0.000000
-0.301030	에 낸 진술서	0.000000
-0.301030	에 몰렸 다	0.000000
-0.301030	에 신고했 고	0.000000
-0.301030	에 처분 의뢰	0.000000
-0.301030	에 취해 소란	0.000000
-0.301030	에 현금 100만	0.000000
-0.124939	에게 금품 을	0.000000
-0.301030	에게 돈 을	0.000000
-0.301030	에게 돌려줬 다	0.000000
-0.301030	에게 미안한 마음	0.000000
-0.301030	에서 늦은 시간	0.000000
-0.301030	에서 술 에	0.000000
-0.301030	에서도 소란 을	0.000000
-0.301030	연합뉴스 강영훈 기자	0.000000
-0.124939	연합뉴스 자료 사진	0.000000
-0.301030	오산시 소재 편의점	0.000000
-0.301030	오전 6시 께	0.000000
-0.301030	원 과 명함	0.000000
-0.301030	원 이하 금품	0.000000
-0.301030	위 에 현금	0.000000
-0.079181	위반 혐의 로	0.000000
-0.301030	위반한 것 으로	0.000000
-0.301030	으나 경찰 은	0.000000
-0.301030	으로 관할 법원	0.000000
-0.301030	으로 보고 법원	0.000000
-0.301030	으로 한 것	0.000000
-0.301030	은 A 씨	0.000000
-0.301030	은 과태료 처분	0.000000
-0.301030	은 돈 을	0.000000
-0.301030	은 뜻 으로	0.000000
-0.301030	은 알 고	0.000000
-0.301030	은 직무 관련성	0.000000
-0.301030	을 A 씨	0.000000
-0.301030	을 건넨 의사	0.000000
-0.301030	을 건넸 다가	0.000000
-0.301030	을 검토 하고	0.000000
-0.301030	을 알 게	0.000000
-0.301030	을 위반한 것	0.000000
-0.301030	을 의뢰 할	0.000000
-0.301030	을 이 어가	0.000000
-0.301030	을 잡았 다	0.000000
-0.124939	을 제공한 사실	0.000000
-0.602060	을 피우다 붙잡혀	0.000000
-0.602060	을 피우다 붙잡힌	0.000000
-0.602060	을 피워 경찰관	0.000000
-0.602060	을 피워 미안함	0.000000
-0.301030	을 하기 로	0.000000
-0.124939	음 연합뉴스 자료	0.000000
-0.301030	의 금지 에	0.000000
-0.301030	의 뜻 은	0.000000
-0.301030	의 책상 위	0.000000
-0.602060	의 표시 로	0.000000
-0.602060	의 표시 일	0.000000
-0.301030	의뢰 를 검토	0.000000
-0.301030	의뢰 할 것	0.000000
-0.301030	의사 A 73	0.000000
-0.301030	의사 가 경찰	0.000000
-0.301030	의사 는 늦게	0.000000
-0.301030	이 든 봉투	0.000000
-0.602060	이 명백 한	0.000000
-0.602060	이 명백 해	0.000000
-0.301030	이 어가 다	0.000000
-0.124939	이 있는 경찰관	0.000000
-0.301030	이라고 말했 다	0.000000
-0.301030	이라고 주장했 으나	0.000000
-0.301030	이런 사실 을	0.000000
-0.301030	이었 다 며	0.000000
-0.301030	이하 금품 은	0.000000
-0.301030	인 B 경위	0.000000
-0.301030	인데 또다시 미안하게	0.000000
-0.301030	일 뿐 </s>	0.000000
-0.301030	입건 돼 조사	0.000000
-0.301030	입건 됐 다	0.000000
-0.124939	있는 경찰관 에게	0.000000
-0.301030	있다 </s> </s>	0.000000
-0.301030	있다 고 22일	0.000000
-0.301030	있다 며 100만	0.000000
-0.301030	있지 만 직무	0.000000
-0.124939	자료 사진 </s>	0.000000
-0.301030	잡았 다 </s>	0.000000
-0.301030	제공 명백 과태료	0.000000
-0.124939	제공한 사실 이	0.000000
-0.124939	조사 가 끝난	0.000000
-0.301030	조사 끝난 뒤	0.000000
-0.301030	조사 를 받지	0.000000
-0.301030	조사 받게 된	0.000000
-0.602060	조사하고 있다 고	0.000000
-0.602060	조사하고 있다 며	0.000000
-0.301030	좋 은 뜻	0.000000
-0.301030	주장했 으나 경찰	0.000000
-0.301030	중 이라고 말했	0.000000
-0.301030	지난 15일 경찰서	0.000000
-0.301030	지난달 20일 오전	0.000000
-0.124939	직무 관련성 이	0.000000
-0.301030	직무관련성 금품 제공	0.000000
-0.301030	진술 했 다	0.000000
-0.301030	진술서 에서 늦은	0.000000
-0.301030	찾아 다시 조사	0.000000
-0.301030	책상 위 에	0.000000
-0.301030	처분 가닥 </s>	0.000000
-0.301030	처분 대상 으로	0.000000
-0.602060	처분 을 의뢰	0.000000
-0.602060	처분 을 하기	0.000000
-0.301030	처분 의뢰 를	0.000000
-0.301030	처지 에 몰렸	0.000000
-0.301030	청 문관 실	0.000000
-0.301030	청탁 금지법 위반	0.000000
-0.778151	청탁 금지법 을	0.000000
-0.301030	청탁 및 금품	0.000000
-0.301030	취지 로 진술	0.000000
-0.301030	취해 소란 을	0.000000
-0.301030	편의점 서 소란	0.000000
-0.301030	편의점 에서 술	0.000000
-0.301030	표시 로 건넨	0.000000
-0.301030	표시 일 뿐	0.000000
-0.301030	피우다 붙잡혀 업무방해	0.000000
-0.301030	피우다 붙잡힌 70	0.000000
-0.301030	피워 경찰관 들	0.000000
-0.301030	피워 미안함 의	0.000000
-0.301030	하고 있다 </s>	0.000000
-0.301030	하기 로 가닥	0.000000
-0.301030	한 것 인데	0.000000
-0.301030	한 만큼 과태료	0.000000
-0.301030	할 것 을	0.000000
-0.301030	해 청탁 금지법	0.000000
-0.124939	했 다 </s>	0.000000
-0.301030	현금 100만 원	0.000000
-0.903090	혐의 로 과태료	0.000000
-0.903090	혐의 로 의사	0.000000
-0.903090	혐의 로 입건	0.000000
-0.903090	혐의 로 조사하고	0.000000
-0.301030	혐의 입건 돼	0.000000
-0.301030	화성 동부 경찰서	0.000000
-0.301030	화성 연합뉴스 강영훈	0.000000

\end\
